<?xml version="1.0"?>
<opencv_storage>
<stage11>
  <maxWeakCount>6</maxWeakCount>
  <stageThreshold>-9.5771497488021851e-01</stageThreshold>
  <weakClassifiers>
    <_>
      <internalNodes>
        0 -1 42839 1.5882228035479784e-03</internalNodes>
      <leafValues>
        -3.2984292507171631e-01 6.4179104566574097e-01</leafValues></_>
    <_>
      <internalNodes>
        0 -1 118665 1.1317790485918522e-03</internalNodes>
      <leafValues>
        2.8989636898040771e-01 -6.8818473815917969e-01</leafValues></_>
    <_>
      <internalNodes>
        0 -1 115733 -1.5604142099618912e-02</internalNodes>
      <leafValues>
        4.3006399273872375e-01 -4.0566888451576233e-01</leafValues></_>
    <_>
      <internalNodes>
        0 -1 85745 -7.1799410507082939e-03</internalNodes>
      <leafValues>
        -7.0395833253860474e-01 2.9882621765136719e-01</leafValues></_>
    <_>
      <internalNodes>
        0 -1 3819 2.7537131682038307e-03</internalNodes>
      <leafValues>
        -4.1812816262245178e-01 5.1461839675903320e-01</leafValues></_>
    <_>
      <internalNodes>
        0 -1 103203 3.1156907789409161e-03</internalNodes>
      <leafValues>
        -3.9279758930206299e-01 4.8750030994415283e-01</leafValues></_></weakClassifiers></stage11>
</opencv_storage>
