<?xml version="1.0"?>
<opencv_storage>
<stage2>
  <maxWeakCount>5</maxWeakCount>
  <stageThreshold>-6.1052697896957397e-01</stageThreshold>
  <weakClassifiers>
    <_>
      <internalNodes>
        0 -1 70505 4.1113682091236115e-02</internalNodes>
      <leafValues>
        -6.9565218687057495e-01 6.3333332538604736e-01</leafValues></_>
    <_>
      <internalNodes>
        0 -1 10306 -8.9577995240688324e-03</internalNodes>
      <leafValues>
        8.2236033678054810e-01 -4.1557067632675171e-01</leafValues></_>
    <_>
      <internalNodes>
        0 -1 110016 -3.7257529795169830e-02</internalNodes>
      <leafValues>
        -9.1406381130218506e-01 3.7597921490669250e-01</leafValues></_>
    <_>
      <internalNodes>
        0 -1 56341 -2.3842614144086838e-02</internalNodes>
      <leafValues>
        6.9205284118652344e-01 -4.4240653514862061e-01</leafValues></_>
    <_>
      <internalNodes>
        0 -1 112617 -7.7855614945292473e-03</internalNodes>
      <leafValues>
        7.2052609920501709e-01 -5.1522415876388550e-01</leafValues></_></weakClassifiers></stage2>
</opencv_storage>
