<?xml version="1.0"?>
<opencv_storage>
<stage10>
  <maxWeakCount>6</maxWeakCount>
  <stageThreshold>-1.1820373535156250e+00</stageThreshold>
  <weakClassifiers>
    <_>
      <internalNodes>
        0 -1 946786 1.0853852331638336e-01</internalNodes>
      <leafValues>
        -4.7499999403953552e-01 5.7142859697341919e-01</leafValues></_>
    <_>
      <internalNodes>
        0 -1 745466 -2.8414731845259666e-02</internalNodes>
      <leafValues>
        -8.9101368188858032e-01 2.7459579706192017e-01</leafValues></_>
    <_>
      <internalNodes>
        0 -1 962924 -4.4382506166584790e-04</internalNodes>
      <leafValues>
        7.2720313072204590e-01 -3.6495703458786011e-01</leafValues></_>
    <_>
      <internalNodes>
        0 -1 495432 -5.0958938663825393e-04</internalNodes>
      <leafValues>
        -7.0587348937988281e-01 3.5775625705718994e-01</leafValues></_>
    <_>
      <internalNodes>
        0 -1 1992178 7.2188238846138120e-04</internalNodes>
      <leafValues>
        -3.7235170602798462e-01 6.4222651720046997e-01</leafValues></_>
    <_>
      <internalNodes>
        0 -1 1706352 -2.1411699708551168e-04</internalNodes>
      <leafValues>
        5.3048580884933472e-01 -4.8289972543716431e-01</leafValues></_></weakClassifiers></stage10>
</opencv_storage>
