<?xml version="1.0"?>
<opencv_storage>
<cascade>
  <stageType>BOOST</stageType>
  <featureType>HAAR</featureType>
  <height>20</height>
  <width>50</width>
  <stageParams>
    <boostType>GAB</boostType>
    <minHitRate>9.9500000476837158e-01</minHitRate>
    <maxFalseAlarm>5.0000000000000000e-01</maxFalseAlarm>
    <weightTrimRate>9.4999998807907104e-01</weightTrimRate>
    <maxDepth>1</maxDepth>
    <maxWeakCount>100</maxWeakCount></stageParams>
  <featureParams>
    <maxCatCount>0</maxCatCount>
    <featSize>1</featSize>
    <mode>BASIC</mode></featureParams>
  <stageNum>22</stageNum>
  <stages>
    <!-- stage 0 -->
    <_>
      <maxWeakCount>2</maxWeakCount>
      <stageThreshold>2.2373759746551514e-01</stageThreshold>
      <weakClassifiers>
        <_>
          <internalNodes>
            0 -1 13 1.1460788082331419e-03</internalNodes>
          <leafValues>
            -5.0000000000000000e-01 9.3939393758773804e-01</leafValues></_>
        <_>
          <internalNodes>
            0 -1 2 -3.2452994491904974e-03</internalNodes>
          <leafValues>
            8.2052803039550781e-01 -7.1565634012222290e-01</leafValues></_></weakClassifiers></_>
    <!-- stage 1 -->
    <_>
      <maxWeakCount>2</maxWeakCount>
      <stageThreshold>2.5806450843811035e-01</stageThreshold>
      <weakClassifiers>
        <_>
          <internalNodes>
            0 -1 25 1.2211988214403391e-03</internalNodes>
          <leafValues>
            -7.4193549156188965e-01 9.4736844301223755e-01</leafValues></_>
        <_>
          <internalNodes>
            0 -1 36 -1.0602234397083521e-03</internalNodes>
          <leafValues>
            1. -6.6533029079437256e-01</leafValues></_></weakClassifiers></_>
    <!-- stage 2 -->
    <_>
      <maxWeakCount>2</maxWeakCount>
      <stageThreshold>1.2450748682022095e-01</stageThreshold>
      <weakClassifiers>
        <_>
          <internalNodes>
            0 -1 27 -1.1745281517505646e-03</internalNodes>
          <leafValues>
            9.3750000000000000e-01 -4.5945945382118225e-01</leafValues></_>
        <_>
          <internalNodes>
            0 -1 6 -4.1783093474805355e-03</internalNodes>
          <leafValues>
            -8.1299251317977905e-01 7.1314835548400879e-01</leafValues></_></weakClassifiers></_>
    <!-- stage 3 -->
    <_>
      <maxWeakCount>1</maxWeakCount>
      <stageThreshold>5.7692307233810425e-01</stageThreshold>
      <weakClassifiers>
        <_>
          <internalNodes>
            0 -1 21 -5.3282745182514191e-02</internalNodes>
          <leafValues>
            -1. 5.7692307233810425e-01</leafValues></_></weakClassifiers></_>
    <!-- stage 4 -->
    <_>
      <maxWeakCount>2</maxWeakCount>
      <stageThreshold>7.2564125061035156e-02</stageThreshold>
      <weakClassifiers>
        <_>
          <internalNodes>
            0 -1 28 1.3596515054814517e-04</internalNodes>
          <leafValues>
            -6.4285713434219360e-01 7.5609755516052246e-01</leafValues></_>
        <_>
          <internalNodes>
            0 -1 8 -3.8451072759926319e-03</internalNodes>
          <leafValues>
            7.1542125940322876e-01 -6.3710999488830566e-01</leafValues></_></weakClassifiers></_>
    <!-- stage 5 -->
    <_>
      <maxWeakCount>3</maxWeakCount>
      <stageThreshold>-3.5101187229156494e-01</stageThreshold>
      <weakClassifiers>
        <_>
          <internalNodes>
            0 -1 17 -3.3824236015789211e-04</internalNodes>
          <leafValues>
            1. -4.0000000596046448e-01</leafValues></_>
        <_>
          <internalNodes>
            0 -1 16 1.6330070793628693e-02</internalNodes>
          <leafValues>
            -5.8253854513168335e-01 7.5935393571853638e-01</leafValues></_>
        <_>
          <internalNodes>
            0 -1 12 -1.5594512224197388e-02</internalNodes>
          <leafValues>
            -7.1036583185195923e-01 7.2620910406112671e-01</leafValues></_></weakClassifiers></_>
    <!-- stage 6 -->
    <_>
      <maxWeakCount>3</maxWeakCount>
      <stageThreshold>-7.6311394572257996e-02</stageThreshold>
      <weakClassifiers>
        <_>
          <internalNodes>
            0 -1 30 -1.4750614354852587e-05</internalNodes>
          <leafValues>
            7.8947371244430542e-01 -5.4838711023330688e-01</leafValues></_>
        <_>
          <internalNodes>
            0 -1 35 -9.4332394655793905e-04</internalNodes>
          <leafValues>
            1. -3.4298929572105408e-01</leafValues></_>
        <_>
          <internalNodes>
            0 -1 38 3.7202797830104828e-04</internalNodes>
          <leafValues>
            -5.2279579639434814e-01 8.2548743486404419e-01</leafValues></_></weakClassifiers></_>
    <!-- stage 7 -->
    <_>
      <maxWeakCount>2</maxWeakCount>
      <stageThreshold>-1.0031041689217091e-02</stageThreshold>
      <weakClassifiers>
        <_>
          <internalNodes>
            0 -1 7 -5.2746692672371864e-03</internalNodes>
          <leafValues>
            -7.0370370149612427e-01 7.6190477609634399e-01</leafValues></_>
        <_>
          <internalNodes>
            0 -1 44 1.7617978155612946e-02</internalNodes>
          <leafValues>
            -7.7193582057952881e-01 7.0659500360488892e-01</leafValues></_></weakClassifiers></_>
    <!-- stage 8 -->
    <_>
      <maxWeakCount>2</maxWeakCount>
      <stageThreshold>1.7505396902561188e-01</stageThreshold>
      <weakClassifiers>
        <_>
          <internalNodes>
            0 -1 15 -5.1621464081108570e-04</internalNodes>
          <leafValues>
            8.8888889551162720e-01 -5.7575756311416626e-01</leafValues></_>
        <_>
          <internalNodes>
            0 -1 0 3.8987714797258377e-02</internalNodes>
          <leafValues>
            -7.1383494138717651e-01 8.2563978433609009e-01</leafValues></_></weakClassifiers></_>
    <!-- stage 9 -->
    <_>
      <maxWeakCount>2</maxWeakCount>
      <stageThreshold>2.0064537227153778e-01</stageThreshold>
      <weakClassifiers>
        <_>
          <internalNodes>
            0 -1 23 -6.9299107417464256e-04</internalNodes>
          <leafValues>
            1. -5.5555558204650879e-01</leafValues></_>
        <_>
          <internalNodes>
            0 -1 5 3.6347039043903351e-02</internalNodes>
          <leafValues>
            7.9121464490890503e-01 -7.9935461282730103e-01</leafValues></_></weakClassifiers></_>
    <!-- stage 10 -->
    <_>
      <maxWeakCount>2</maxWeakCount>
      <stageThreshold>2.8859704732894897e-01</stageThreshold>
      <weakClassifiers>
        <_>
          <internalNodes>
            0 -1 45 6.7054810642730445e-05</internalNodes>
          <leafValues>
            -4.2105263471603394e-01 9.3548387289047241e-01</leafValues></_>
        <_>
          <internalNodes>
            0 -1 24 -5.8937063440680504e-03</internalNodes>
          <leafValues>
            8.5181725025177002e-01 -6.4688682556152344e-01</leafValues></_></weakClassifiers></_>
    <!-- stage 11 -->
    <_>
      <maxWeakCount>2</maxWeakCount>
      <stageThreshold>-1.3881023228168488e-01</stageThreshold>
      <weakClassifiers>
        <_>
          <internalNodes>
            0 -1 29 -7.1470043621957302e-03</internalNodes>
          <leafValues>
            -6.9230771064758301e-01 7.2093021869659424e-01</leafValues></_>
        <_>
          <internalNodes>
            0 -1 26 6.9299631286412477e-04</internalNodes>
          <leafValues>
            7.1936613321304321e-01 -8.5974043607711792e-01</leafValues></_></weakClassifiers></_>
    <!-- stage 12 -->
    <_>
      <maxWeakCount>2</maxWeakCount>
      <stageThreshold>7.2282433509826660e-02</stageThreshold>
      <weakClassifiers>
        <_>
          <internalNodes>
            0 -1 43 -4.6594198793172836e-03</internalNodes>
          <leafValues>
            -8.3333331346511841e-01 7.3333334922790527e-01</leafValues></_>
        <_>
          <internalNodes>
            0 -1 41 -3.4348727785982192e-04</internalNodes>
          <leafValues>
            9.1255706548690796e-01 -6.6105091571807861e-01</leafValues></_></weakClassifiers></_>
    <!-- stage 13 -->
    <_>
      <maxWeakCount>2</maxWeakCount>
      <stageThreshold>2.9661759734153748e-01</stageThreshold>
      <weakClassifiers>
        <_>
          <internalNodes>
            0 -1 32 -5.9680002741515636e-03</internalNodes>
          <leafValues>
            -6.1290323734283447e-01 8.4210526943206787e-01</leafValues></_>
        <_>
          <internalNodes>
            0 -1 40 -1.5864921733736992e-03</internalNodes>
          <leafValues>
            1. -5.4548764228820801e-01</leafValues></_></weakClassifiers></_>
    <!-- stage 14 -->
    <_>
      <maxWeakCount>2</maxWeakCount>
      <stageThreshold>1.8747159838676453e-01</stageThreshold>
      <weakClassifiers>
        <_>
          <internalNodes>
            0 -1 34 -1.1021199170500040e-03</internalNodes>
          <leafValues>
            1. -4.3589743971824646e-01</leafValues></_>
        <_>
          <internalNodes>
            0 -1 4 3.1198995187878609e-02</internalNodes>
          <leafValues>
            7.4518948793411255e-01 -8.1252837181091309e-01</leafValues></_></weakClassifiers></_>
    <!-- stage 15 -->
    <_>
      <maxWeakCount>2</maxWeakCount>
      <stageThreshold>2.6595160365104675e-01</stageThreshold>
      <weakClassifiers>
        <_>
          <internalNodes>
            0 -1 37 -4.8505421727895737e-03</internalNodes>
          <leafValues>
            1. -4.3589743971824646e-01</leafValues></_>
        <_>
          <internalNodes>
            0 -1 11 6.2575172632932663e-03</internalNodes>
          <leafValues>
            7.0184904336929321e-01 -7.2037917375564575e-01</leafValues></_></weakClassifiers></_>
    <!-- stage 16 -->
    <_>
      <maxWeakCount>2</maxWeakCount>
      <stageThreshold>-7.0853321813046932e-03</stageThreshold>
      <weakClassifiers>
        <_>
          <internalNodes>
            0 -1 20 -9.9278287962079048e-04</internalNodes>
          <leafValues>
            -5.7575756311416626e-01 8.8888889551162720e-01</leafValues></_>
        <_>
          <internalNodes>
            0 -1 18 -2.8098991140723228e-02</internalNodes>
          <leafValues>
            -8.9597421884536743e-01 7.0114570856094360e-01</leafValues></_></weakClassifiers></_>
    <!-- stage 17 -->
    <_>
      <maxWeakCount>3</maxWeakCount>
      <stageThreshold>-3.1562447547912598e-01</stageThreshold>
      <weakClassifiers>
        <_>
          <internalNodes>
            0 -1 1 -1.4474338386207819e-03</internalNodes>
          <leafValues>
            9.3548387289047241e-01 -4.2105263471603394e-01</leafValues></_>
        <_>
          <internalNodes>
            0 -1 31 8.3158331108279526e-05</internalNodes>
          <leafValues>
            -5.1773470640182495e-01 9.4281405210494995e-01</leafValues></_>
        <_>
          <internalNodes>
            0 -1 3 -2.2895017173141241e-03</internalNodes>
          <leafValues>
            -7.3337364196777344e-01 6.9767624139785767e-01</leafValues></_></weakClassifiers></_>
    <!-- stage 18 -->
    <_>
      <maxWeakCount>2</maxWeakCount>
      <stageThreshold>-2.4409145116806030e-02</stageThreshold>
      <weakClassifiers>
        <_>
          <internalNodes>
            0 -1 14 -2.2379431175068021e-04</internalNodes>
          <leafValues>
            -6.0000002384185791e-01 7.9487180709838867e-01</leafValues></_>
        <_>
          <internalNodes>
            0 -1 33 6.7924073664471507e-04</internalNodes>
          <leafValues>
            7.3298668861389160e-01 -8.1928092241287231e-01</leafValues></_></weakClassifiers></_>
    <!-- stage 19 -->
    <_>
      <maxWeakCount>3</maxWeakCount>
      <stageThreshold>-3.2669231295585632e-01</stageThreshold>
      <weakClassifiers>
        <_>
          <internalNodes>
            0 -1 19 -4.4219213305041194e-04</internalNodes>
          <leafValues>
            9.3333333730697632e-01 -3.8461539149284363e-01</leafValues></_>
        <_>
          <internalNodes>
            0 -1 22 3.8211123319342732e-04</internalNodes>
          <leafValues>
            -5.9543192386627197e-01 7.9935115575790405e-01</leafValues></_>
        <_>
          <internalNodes>
            0 -1 42 -4.2564929462969303e-03</internalNodes>
          <leafValues>
            -6.6459369659423828e-01 7.6061493158340454e-01</leafValues></_></weakClassifiers></_>
    <!-- stage 20 -->
    <_>
      <maxWeakCount>1</maxWeakCount>
      <stageThreshold>6.0784316062927246e-01</stageThreshold>
      <weakClassifiers>
        <_>
          <internalNodes>
            0 -1 10 -8.0936260521411896e-02</internalNodes>
          <leafValues>
            -1. 6.0784316062927246e-01</leafValues></_></weakClassifiers></_>
    <!-- stage 21 -->
    <_>
      <maxWeakCount>2</maxWeakCount>
      <stageThreshold>1.8328416347503662e-01</stageThreshold>
      <weakClassifiers>
        <_>
          <internalNodes>
            0 -1 39 3.3576827496290207e-02</internalNodes>
          <leafValues>
            -5.7575756311416626e-01 8.8888889551162720e-01</leafValues></_>
        <_>
          <internalNodes>
            0 -1 9 -1.1555282981134951e-05</internalNodes>
          <leafValues>
            7.8669863939285278e-01 -7.0560473203659058e-01</leafValues></_></weakClassifiers></_></stages>
  <features>
    <_>
      <rects>
        <_>
          0 3 49 6 -1.</_>
        <_>
          0 6 49 3 2.</_></rects>
      <tilted>0</tilted></_>
    <_>
      <rects>
        <_>
          0 11 8 5 -1.</_>
        <_>
          4 11 4 5 2.</_></rects>
      <tilted>0</tilted></_>
    <_>
      <rects>
        <_>
          1 3 18 6 -1.</_>
        <_>
          7 3 6 6 3.</_></rects>
      <tilted>0</tilted></_>
    <_>
      <rects>
        <_>
          1 10 2 9 -1.</_>
        <_>
          1 13 2 3 3.</_></rects>
      <tilted>0</tilted></_>
    <_>
      <rects>
        <_>
          2 5 26 12 -1.</_>
        <_>
          2 5 13 6 2.</_>
        <_>
          15 11 13 6 2.</_></rects>
      <tilted>0</tilted></_>
    <_>
      <rects>
        <_>
          2 7 42 7 -1.</_>
        <_>
          23 7 21 7 2.</_></rects>
      <tilted>0</tilted></_>
    <_>
      <rects>
        <_>
          3 0 24 9 -1.</_>
        <_>
          11 0 8 9 3.</_></rects>
      <tilted>0</tilted></_>
    <_>
      <rects>
        <_>
          5 0 27 17 -1.</_>
        <_>
          14 0 9 17 3.</_></rects>
      <tilted>0</tilted></_>
    <_>
      <rects>
        <_>
          5 8 14 12 -1.</_>
        <_>
          5 8 7 6 2.</_>
        <_>
          12 14 7 6 2.</_></rects>
      <tilted>0</tilted></_>
    <_>
      <rects>
        <_>
          6 3 12 1 -1.</_>
        <_>
          10 3 4 1 3.</_></rects>
      <tilted>0</tilted></_>
    <_>
      <rects>
        <_>
          6 3 42 16 -1.</_>
        <_>
          6 3 21 8 2.</_>
        <_>
          27 11 21 8 2.</_></rects>
      <tilted>0</tilted></_>
    <_>
      <rects>
        <_>
          6 4 30 6 -1.</_>
        <_>
          6 4 15 3 2.</_>
        <_>
          21 7 15 3 2.</_></rects>
      <tilted>0</tilted></_>
    <_>
      <rects>
        <_>
          6 7 32 12 -1.</_>
        <_>
          6 7 16 6 2.</_>
        <_>
          22 13 16 6 2.</_></rects>
      <tilted>0</tilted></_>
    <_>
      <rects>
        <_>
          7 4 2 6 -1.</_>
        <_>
          7 6 2 2 3.</_></rects>
      <tilted>0</tilted></_>
    <_>
      <rects>
        <_>
          7 8 5 6 -1.</_>
        <_>
          7 10 5 2 3.</_></rects>
      <tilted>0</tilted></_>
    <_>
      <rects>
        <_>
          7 10 9 3 -1.</_>
        <_>
          10 10 3 3 3.</_></rects>
      <tilted>0</tilted></_>
    <_>
      <rects>
        <_>
          8 0 18 11 -1.</_>
        <_>
          14 0 6 11 3.</_></rects>
      <tilted>0</tilted></_>
    <_>
      <rects>
        <_>
          9 0 2 10 -1.</_>
        <_>
          10 0 1 10 2.</_></rects>
      <tilted>0</tilted></_>
    <_>
      <rects>
        <_>
          9 0 26 14 -1.</_>
        <_>
          9 0 13 7 2.</_>
        <_>
          22 7 13 7 2.</_></rects>
      <tilted>0</tilted></_>
    <_>
      <rects>
        <_>
          10 7 8 3 -1.</_>
        <_>
          10 8 8 1 3.</_></rects>
      <tilted>0</tilted></_>
    <_>
      <rects>
        <_>
          10 14 39 1 -1.</_>
        <_>
          23 14 13 1 3.</_></rects>
      <tilted>0</tilted></_>
    <_>
      <rects>
        <_>
          11 1 24 11 -1.</_>
        <_>
          23 1 12 11 2.</_></rects>
      <tilted>0</tilted></_>
    <_>
      <rects>
        <_>
          11 11 9 4 -1.</_>
        <_>
          14 11 3 4 3.</_></rects>
      <tilted>0</tilted></_>
    <_>
      <rects>
        <_>
          12 10 21 5 -1.</_>
        <_>
          19 10 7 5 3.</_></rects>
      <tilted>0</tilted></_>
    <_>
      <rects>
        <_>
          14 3 27 9 -1.</_>
        <_>
          23 3 9 9 3.</_></rects>
      <tilted>0</tilted></_>
    <_>
      <rects>
        <_>
          14 4 3 4 -1.</_>
        <_>
          14 6 3 2 2.</_></rects>
      <tilted>0</tilted></_>
    <_>
      <rects>
        <_>
          14 17 9 3 -1.</_>
        <_>
          17 17 3 3 3.</_></rects>
      <tilted>0</tilted></_>
    <_>
      <rects>
        <_>
          19 1 3 16 -1.</_>
        <_>
          20 1 1 16 3.</_></rects>
      <tilted>0</tilted></_>
    <_>
      <rects>
        <_>
          19 5 4 7 -1.</_>
        <_>
          21 5 2 7 2.</_></rects>
      <tilted>0</tilted></_>
    <_>
      <rects>
        <_>
          20 2 14 10 -1.</_>
        <_>
          20 2 7 5 2.</_>
        <_>
          27 7 7 5 2.</_></rects>
      <tilted>0</tilted></_>
    <_>
      <rects>
        <_>
          20 3 9 3 -1.</_>
        <_>
          23 3 3 3 3.</_></rects>
      <tilted>0</tilted></_>
    <_>
      <rects>
        <_>
          20 9 2 3 -1.</_>
        <_>
          21 9 1 3 2.</_></rects>
      <tilted>0</tilted></_>
    <_>
      <rects>
        <_>
          23 1 18 12 -1.</_>
        <_>
          29 1 6 12 3.</_></rects>
      <tilted>0</tilted></_>
    <_>
      <rects>
        <_>
          25 16 12 4 -1.</_>
        <_>
          29 16 4 4 3.</_></rects>
      <tilted>0</tilted></_>
    <_>
      <rects>
        <_>
          27 7 9 6 -1.</_>
        <_>
          30 7 3 6 3.</_></rects>
      <tilted>0</tilted></_>
    <_>
      <rects>
        <_>
          28 2 2 14 -1.</_>
        <_>
          28 2 1 7 2.</_>
        <_>
          29 9 1 7 2.</_></rects>
      <tilted>0</tilted></_>
    <_>
      <rects>
        <_>
          28 4 6 8 -1.</_>
        <_>
          30 4 2 8 3.</_></rects>
      <tilted>0</tilted></_>
    <_>
      <rects>
        <_>
          28 8 6 8 -1.</_>
        <_>
          30 8 2 8 3.</_></rects>
      <tilted>0</tilted></_>
    <_>
      <rects>
        <_>
          30 12 6 4 -1.</_>
        <_>
          32 12 2 4 3.</_></rects>
      <tilted>0</tilted></_>
    <_>
      <rects>
        <_>
          31 1 17 15 -1.</_>
        <_>
          31 6 17 5 3.</_></rects>
      <tilted>0</tilted></_>
    <_>
      <rects>
        <_>
          32 5 15 4 -1.</_>
        <_>
          37 5 5 4 3.</_></rects>
      <tilted>0</tilted></_>
    <_>
      <rects>
        <_>
          34 2 12 5 -1.</_>
        <_>
          38 2 4 5 3.</_></rects>
      <tilted>0</tilted></_>
    <_>
      <rects>
        <_>
          35 7 13 9 -1.</_>
        <_>
          35 10 13 3 3.</_></rects>
      <tilted>0</tilted></_>
    <_>
      <rects>
        <_>
          37 9 12 6 -1.</_>
        <_>
          37 9 6 3 2.</_>
        <_>
          43 12 6 3 2.</_></rects>
      <tilted>0</tilted></_>
    <_>
      <rects>
        <_>
          38 1 12 15 -1.</_>
        <_>
          38 6 12 5 3.</_></rects>
      <tilted>0</tilted></_>
    <_>
      <rects>
        <_>
          46 13 3 5 -1.</_>
        <_>
          47 13 1 5 3.</_></rects>
      <tilted>0</tilted></_></features></cascade>
</opencv_storage>
