<?xml version="1.0"?>
<opencv_storage>
<stage5>
  <maxWeakCount>6</maxWeakCount>
  <stageThreshold>-7.7083337306976318e-01</stageThreshold>
  <weakClassifiers>
    <_>
      <internalNodes>
        0 -1 130936 1.1503052664920688e-03</internalNodes>
      <leafValues>
        -4.6961325407028198e-01 8.4415584802627563e-01</leafValues></_>
    <_>
      <internalNodes>
        0 -1 62525 1.9272237550467253e-03</internalNodes>
      <leafValues>
        -5.0630480051040649e-01 6.6498875617980957e-01</leafValues></_>
    <_>
      <internalNodes>
        0 -1 127886 3.3070216886699200e-03</internalNodes>
      <leafValues>
        -3.1961682438850403e-01 9.1973561048507690e-01</leafValues></_>
    <_>
      <internalNodes>
        0 -1 133962 5.2775803487747908e-04</internalNodes>
      <leafValues>
        -4.2793437838554382e-01 7.0584559440612793e-01</leafValues></_>
    <_>
      <internalNodes>
        0 -1 68791 2.9345457442104816e-03</internalNodes>
      <leafValues>
        3.2811385393142700e-01 -7.8950983285903931e-01</leafValues></_>
    <_>
      <internalNodes>
        0 -1 35902 -1.0475218296051025e-03</internalNodes>
      <leafValues>
        6.2452208995819092e-01 -4.5083349943161011e-01</leafValues></_></weakClassifiers></stage5>
</opencv_storage>
